34 128
1 0.010760164 -0.18455908 0.054880325 -0.009797926 -0.19354662 -0.019837543 0.23184653 0.045700755 0.10941969 -0.0031534117 0.0978499 -0.14750959 -0.10971229 0.020375198 0.11527126 -0.06931879 0.013748986 -0.07156255 -0.061095223 0.06974331 -0.041662846 -0.07451934 0.08583726 0.25520268 0.073221415 0.038448527 0.19696285 0.07080342 -0.083435334 -0.07263703 0.06983496 0.039108574 0.07468516 0.038450696 -0.010055246 -0.012098985 -0.19442175 0.062368672 -0.0021022672 -0.03530089 -0.041334443 -0.16613257 -0.04222917 0.13250932 -0.15957525 -0.020129345 -0.06221314 -0.14952789 -0.061573677 0.05925678 -0.078237034 -0.020132774 -0.07599631 0.083684824 0.07725396 -0.087679885 0.17190439 0.2798961 0.08632275 -0.17035088 -0.040655386 -0.007777076 0.16839305 0.05886275 0.14671491 0.045142666 0.03699534 -0.035863463 -0.070963 -0.12277626 -0.04340483 0.07341319 -0.02790889 0.05139806 0.014243608 0.013708014 -0.2149745 -0.10441029 -0.15891524 -0.20993146 0.056058034 -0.12905473 -0.06253836 -0.054698832 0.23692302 0.24736743 -0.074670054 -0.05761472 0.03863094 0.008879664 0.014921941 -0.16718732 -0.08772844 -0.12671024 -0.033523425 -0.08759351 0.26291922 -0.13220987 0.022799853 0.006582615 -0.07820807 -0.26223734 -0.028045889 0.0023340525 -0.12269085 -0.02517747 0.005903885 0.12365947 -0.072017364 -0.09703714 -0.012550157 -0.021954957 0.083178684 -0.019669043 -0.08180824 0.0021884572 0.11840407 -0.027575478 0.11449298 0.040667053 -0.021553565 -0.05471217 -0.03151981 0.0020517611 0.01157831 -0.15852115 -0.0064579304 0.19276285
34 0.024672007 -0.18738768 0.06879665 -0.04352097 -0.1423533 0.045717664 0.18236041 0.05304415 0.15226045 0.0054516695 0.053266898 -0.0706696 -0.04801268 0.010334975 0.103863195 -0.06194865 -0.0075966893 -0.0238184 -0.08432549 0.057937022 -0.020049205 -0.06421434 0.061900973 0.2913341 0.09296599 0.02130656 0.22803602 0.031715892 -0.079195306 -0.09009059 0.12049538 0.005527549 0.06881829 -0.018187884 0.020352954 -0.07094882 -0.22981521 0.087451294 0.0040413206 -0.058004446 0.048527185 -0.16606529 0.021274125 0.18789034 -0.1509439 0.026992638 -0.08036147 -0.13896339 -0.0028851063 0.06390734 -0.068000935 -0.033503365 -0.09193839 0.039902575 0.034924895 -0.08662627 0.200805 0.29490876 0.16075292 -0.095021755 -0.008644218 -0.013284603 0.112270765 0.059767764 0.13048065 0.07023871 0.027708791 -0.040042408 -0.12648037 -0.12545525 0.0062860195 0.04409784 -0.006827547 0.042538013 0.0073184907 0.037835233 -0.1864865 -0.12420378 -0.2213805 -0.20216711 -0.018534385 -0.10732691 -0.012165082 -0.013265034 0.276724 0.29034176 -0.090314634 -0.047704816 0.040567487 0.004829785 0.06309012 -0.14992693 -0.11399944 -0.121142544 -0.056005478 0.00553339 0.2624269 -0.0930731 0.019879311 -0.025710845 -0.05289839 -0.24454933 0.062425084 -0.0022437815 -0.12414582 -0.061426282 -0.03307433 0.17492107 -0.090845905 -0.09268161 -0.034288313 -0.004930133 0.09191417 -0.08961651 -0.10848143 -0.025879331 0.10315658 -0.050952375 0.14349315 0.06243352 -0.0648022 -0.054205984 -0.030366391 -0.01045723 0.07476321 -0.2132407 0.005297285 0.2142242
33 0.022449054 -0.1770583 0.06640828 -0.046306815 -0.14428478 0.04123747 0.17728546 0.05589083 0.14760092 -0.0010624127 0.05374957 -0.07278438 -0.043515787 0.01031873 0.10215826 -0.06057601 -0.01938804 -0.019931225 -0.08069884 0.054122023 -0.023824882 -0.053597398 0.05877283 0.27697033 0.08989256 0.019494362 0.21845196 0.034099482 -0.075374715 -0.080165796 0.12074599 0.0041605607 0.06755661 -0.015805665 0.028773053 -0.05727135 -0.21701835 0.078979425 -8.428104e-05 -0.05891134 0.042518564 -0.15775046 0.022443622 0.18299441 -0.14794582 0.028348751 -0.077879 -0.1313605 0.003267889 0.058829848 -0.07029527 -0.036153313 -0.08508731 0.033193104 0.029888136 -0.07910475 0.18343161 0.2809861 0.15735228 -0.08417245 -0.0196981 -0.0202747 0.1022837 0.057966486 0.13246562 0.068310834 0.02256146 -0.04127866 -0.11613415 -0.120841 0.0040485426 0.041163526 -0.010833577 0.031008106 0.0101899095 0.040869478 -0.17950457 -0.11757919 -0.20903651 -0.19279581 -0.019557888 -0.09843867 -0.008629398 -0.014287393 0.2614514 0.27188122 -0.07868472 -0.043080103 0.037513353 0.008092685 0.06460374 -0.14682268 -0.10423492 -0.12215942 -0.049030773 0.007840041 0.26324922 -0.08183055 0.020957248 -0.020551873 -0.04920602 -0.23201564 0.05824782 -0.0074156676 -0.11488328 -0.06209813 -0.031380214 0.16973482 -0.08735818 -0.09571634 -0.03719693 -0.0013633065 0.08673291 -0.08994625 -0.10062144 -0.01982208 0.10208667 -0.051928993 0.13388403 0.06409395 -0.06411055 -0.048696496 -0.03474087 -0.0056833513 0.06388203 -0.19513917 0.010264075 0.19505636
3 0.012248439 -0.18816404 0.058590084 -0.026083395 -0.18154705 0.0019501795 0.21761385 0.047643997 0.118345864 0.0019514022 0.07834371 -0.12284128 -0.08742785 0.021215115 0.11238068 -0.066024065 0.002722317 -0.058682527 -0.06629756 0.05978708 -0.03907948 -0.0685172 0.081550136 0.26132524 0.07266348 0.03365203 0.19386816 0.04913777 -0.075913005 -0.07550115 0.087174885 0.021126673 0.065884694 0.01999271 -0.00040060823 -0.033722755 -0.19376117 0.06898643 -0.00026308012 -0.04105049 -0.011643794 -0.15535906 -0.021413581 0.14747 -0.14802606 -0.0105153825 -0.06818834 -0.14495848 -0.042315096 0.05893316 -0.07132186 -0.03093211 -0.07199411 0.07273665 0.062133823 -0.08727345 0.17248917 0.27246773 0.10567887 -0.1406344 -0.030083124 -0.008281213 0.14988051 0.051489178 0.13217044 0.05483148 0.037394863 -0.03657305 -0.0889504 -0.1163569 -0.021475054 0.06351889 -0.02300449 0.04551831 0.009070236 0.026547441 -0.19821507 -0.10633514 -0.174726 -0.19446707 0.03698323 -0.118682094 -0.042742345 -0.043058783 0.2376646 0.2521782 -0.07597885 -0.051391117 0.041706655 0.006857845 0.031063687 -0.15649745 -0.09396298 -0.12304895 -0.04478638 -0.05986539 0.2488231 -0.11171825 0.019652681 0.0018110055 -0.066126294 -0.25059435 -0.004395738 0.0017762611 -0.1177829 -0.036901843 -0.0063256742 0.1417665 -0.07480176 -0.09208909 -0.016292121 -0.011530175 0.08499824 -0.04064477 -0.0912488 0.002525026 0.111691624 -0.03898884 0.11711938 0.053676426 -0.03721115 -0.05128957 -0.034983322 0.005716323 0.035470907 -0.16914865 -0.006098989 0.18801026
2 0.012448656 -0.1904638 0.05617263 -0.021838035 -0.18850084 -0.008748226 0.22890347 0.04594383 0.110548034 -0.0022987411 0.08587161 -0.13550636 -0.097412296 0.019933563 0.11244294 -0.066017024 0.0010895388 -0.06353248 -0.059892498 0.06031539 -0.036463942 -0.06614353 0.0866123 0.24996896 0.070464656 0.036933433 0.19833156 0.06167967 -0.081027865 -0.07766912 0.080320716 0.024569534 0.07471113 0.030258656 -0.0025282085 -0.024659013 -0.18301873 0.06537456 -0.0063626617 -0.046648063 -0.025340691 -0.16274282 -0.03423788 0.13992022 -0.16476952 -0.014543153 -0.062355656 -0.14851515 -0.047400914 0.060947534 -0.07413592 -0.025905117 -0.073313445 0.08130895 0.076296315 -0.09126057 0.17275183 0.2830171 0.104171626 -0.16255723 -0.03493112 -0.014310449 0.16407232 0.051792737 0.14205566 0.05341748 0.035308897 -0.04406863 -0.086065896 -0.11778795 -0.037672937 0.07210617 -0.035667498 0.04745928 0.01543153 0.019412009 -0.21257944 -0.10470834 -0.16711609 -0.2019038 0.05112127 -0.12436994 -0.057143327 -0.043830097 0.24314547 0.25803778 -0.077578746 -0.060719576 0.044009972 0.014235276 0.028450027 -0.16186835 -0.10102083 -0.1300292 -0.0376793 -0.07621753 0.2544446 -0.119440235 0.023207925 0.004283967 -0.07218789 -0.26280788 -0.0137287555 -0.0039266227 -0.121385984 -0.03483432 0.002940065 0.1388958 -0.07889542 -0.09722253 -0.018556852 -0.012098278 0.08602053 -0.035809558 -0.08747807 0.0103662 0.11238995 -0.038128357 0.116086096 0.049661998 -0.037982006 -0.050869748 -0.033968806 0.011210898 0.021144094 -0.16075772 -0.00037181276 0.18587668
4 0.015296601 -0.19088283 0.061120916 -0.02849935 -0.17803824 0.009390769 0.20998111 0.050380513 0.120869726 -0.0019859958 0.071764454 -0.11408907 -0.080194086 0.019190393 0.10401013 -0.06667087 -0.0039011927 -0.04890404 -0.06890488 0.060814235 -0.03225388 -0.064563826 0.07748961 0.25967774 0.07623968 0.030007979 0.19973236 0.0437589 -0.07802897 -0.07641083 0.09395717 0.018754004 0.0685512 0.014686549 0.0014696213 -0.042446606 -0.18384527 0.06380142 -0.0012300448 -0.051875442 -0.0023482784 -0.15738128 -0.01619315 0.15149517 -0.1487342 -0.0053120703 -0.067826636 -0.14016409 -0.02885962 0.05422647 -0.075354815 -0.027131954 -0.07211745 0.06733411 0.058731448 -0.08722459 0.174166 0.2726106 0.11724508 -0.13370313 -0.03238555 -0.0149349775 0.14309472 0.0487618 0.13009587 0.05352965 0.037964176 -0.04673083 -0.09412432 -0.11485996 -0.01979621 0.05857901 -0.030132428 0.041988753 0.009389752 0.028528055 -0.1911728 -0.10119862 -0.17518094 -0.19333827 0.028814258 -0.11168426 -0.039273776 -0.03286594 0.24295469 0.2580222 -0.077457 -0.055259176 0.039429635 0.008627214 0.041243155 -0.14953424 -0.10175617 -0.123365834 -0.04835739 -0.04949976 0.24980067 -0.10502453 0.017534915 -0.0017859567 -0.06176982 -0.2469416 0.008711985 -0.0017153597 -0.11672356 -0.046475526 -0.014316454 0.14406593 -0.07723317 -0.09624325 -0.019372303 -0.007115706 0.08139584 -0.048634484 -0.09386558 0.0010256821 0.10156484 -0.04817555 0.12281935 0.054498877 -0.050556444 -0.04970093 -0.032998282 0.0044085854 0.036600266 -0.16666375 0.0017294413 0.18371665
32 0.023003219 -0.19355582 0.060286574 -0.04019526 -0.15811057 0.03178138 0.18928038 0.060563583 0.13409613 -0.0037155221 0.057814136 -0.07501286 -0.0534372 0.0105739385 0.10642236 -0.06438693 -0.009690754 -0.025030732 -0.07792969 0.05372101 -0.020014435 -0.06667719 0.06221873 0.2765012 0.08778672 0.018418921 0.2115301 0.032923453 -0.07848096 -0.0882856 0.110817194 0.006160822 0.075669765 -0.012477175 0.019258285 -0.06779778 -0.2031407 0.07809473 0.011016155 -0.061804842 0.0351108 -0.16002215 0.018961888 0.17828104 -0.14857402 0.015738769 -0.06817686 -0.14269227 0.0011450145 0.06278554 -0.06570453 -0.03838786 -0.089631096 0.04286206 0.03337402 -0.08142329 0.18545835 0.2922894 0.15098165 -0.10023961 -0.020785589 -0.022359844 0.11963192 0.050656572 0.13806246 0.063065946 0.031359755 -0.050651636 -0.117180355 -0.12306743 -0.0013959926 0.040788393 -0.016117278 0.03984502 0.008817726 0.03766478 -0.18228766 -0.12301966 -0.21161488 -0.19606782 -0.009073728 -0.10367833 -0.028376956 -0.014993218 0.25769585 0.27936754 -0.08350256 -0.047760285 0.047515187 0.00550478 0.05732223 -0.15822046 -0.10310068 -0.12429461 -0.05790489 -0.009421017 0.2656788 -0.09249961 0.016063347 -0.02158933 -0.053501785 -0.2544114 0.045189343 0.0004370411 -0.12758487 -0.059641976 -0.02116421 0.17188194 -0.085811324 -0.098638386 -0.030097956 -0.00078381354 0.081207044 -0.08376358 -0.0983229 -0.022773558 0.10788319 -0.05591138 0.13590494 0.05312691 -0.061835926 -0.056623597 -0.03776235 -0.0023709126 0.058455773 -0.19893289 0.0080122715 0.20879042
14 0.016466368 -0.19715534 0.064824216 -0.026214018 -0.18501706 0.0019241618 0.2133863 0.056009237 0.12835588 -0.004492874 0.0740462 -0.121309 -0.08439708 0.017315276 0.11828788 -0.072151385 0.00048501478 -0.054439772 -0.073200844 0.059225105 -0.037771773 -0.070636824 0.081126645 0.27589828 0.07712272 0.028826315 0.2086194 0.04648207 -0.08186258 -0.08162203 0.09562609 0.018046735 0.07609874 0.020587524 0.0017742988 -0.043118965 -0.1971223 0.06700267 -0.0015267328 -0.04887345 -0.0011533853 -0.16470757 -0.019408848 0.15840779 -0.16044308 -4.336856e-05 -0.0669561 -0.15372822 -0.03023036 0.058378484 -0.0744282 -0.035781294 -0.08073102 0.069873445 0.052701566 -0.0934934 0.18429644 0.2880297 0.123391174 -0.13918689 -0.03456212 -0.012161457 0.15106001 0.055298343 0.14308985 0.05894363 0.031500746 -0.045563716 -0.09607404 -0.12694944 -0.023927998 0.06579161 -0.029266112 0.04932364 0.0073433197 0.028442169 -0.20010985 -0.11618328 -0.19616085 -0.21213919 0.034027655 -0.122247055 -0.04707374 -0.041537523 0.25204575 0.2757461 -0.080014005 -0.061736424 0.043018885 0.013236385 0.040921777 -0.16508111 -0.106703006 -0.13041914 -0.05206521 -0.05355971 0.27614626 -0.116624564 0.017618502 -0.004610888 -0.071311295 -0.26758865 0.0062625017 0.0011493675 -0.12523681 -0.04285216 -0.011957105 0.16174543 -0.08722708 -0.09840578 -0.023327295 -0.010445549 0.09420893 -0.05023831 -0.100117356 -0.0017035514 0.12197389 -0.043165807 0.1303583 0.05815027 -0.052628152 -0.05514344 -0.037470695 0.007770705 0.040127378 -0.18804501 -0.0043353084 0.20376529
24 0.022696298 -0.18471463 0.058137394 -0.04488275 -0.13801444 0.04671456 0.16078646 0.0609221 0.14843287 -0.00035785857 0.05129674 -0.0575726 -0.041359253 0.014556662 0.098427534 -0.05568979 -0.013284867 -0.021544559 -0.08317491 0.05326791 -0.018359069 -0.058734365 0.060297858 0.27575552 0.09398572 0.01882204 0.21478 0.018429084 -0.06908596 -0.0819475 0.123809464 -0.004488328 0.06666944 -0.021342244 0.02249368 -0.07603733 -0.2117731 0.07998736 0.004716244 -0.059286427 0.0570422 -0.15446319 0.02683061 0.18099613 -0.14561619 0.033033654 -0.07814789 -0.13415971 0.011992379 0.057096437 -0.067591526 -0.041119386 -0.08996207 0.035522934 0.024160108 -0.07847055 0.18774927 0.28437954 0.1618724 -0.07851201 -0.012959795 -0.012756357 0.11004578 0.056263935 0.12934065 0.07157596 0.026462818 -0.038818274 -0.120798275 -0.1263283 0.014500071 0.033317283 -0.008388865 0.03650503 0.0069036894 0.041108593 -0.17280377 -0.12248985 -0.21562245 -0.1947866 -0.021482907 -0.096375495 -0.009784629 -0.012083795 0.26011446 0.2826103 -0.084719315 -0.043262374 0.0410051 0.005505193 0.06546063 -0.14852026 -0.10977642 -0.12042484 -0.059803408 0.011244039 0.25814384 -0.08549959 0.01708434 -0.023873689 -0.04845429 -0.23417743 0.06398853 -0.0033663157 -0.11997351 -0.06505826 -0.032607965 0.17349845 -0.08883169 -0.09043711 -0.037353203 0.004680027 0.08608311 -0.09109076 -0.10163717 -0.0257366 0.09809374 -0.057336397 0.13869347 0.058526088 -0.065949485 -0.050499905 -0.036035772 -0.004886358 0.07286172 -0.20701338 0.004712886 0.20248374
8 0.014186886 -0.17440955 0.055812582 -0.016603014 -0.17610765 -0.009038705 0.21071514 0.048313137 0.10998533 -0.0065313457 0.07481423 -0.13132319 -0.08972208 0.021431785 0.106949516 -0.064293265 -0.0010147062 -0.054721452 -0.064331464 0.063569315 -0.04062452 -0.065673664 0.07873366 0.25269517 0.069288835 0.03330785 0.19845182 0.053503614 -0.07451219 -0.07125748 0.08320719 0.026033832 0.069511764 0.02452363 0.004473987 -0.028913494 -0.19129184 0.061264317 -0.007640407 -0.046212453 -0.0157417 -0.16178244 -0.030442039 0.14942364 -0.16040723 -0.016224707 -0.06493149 -0.15074107 -0.04477157 0.060975887 -0.0748363 -0.026391057 -0.07798678 0.07743683 0.06708091 -0.09025724 0.16662431 0.2725391 0.102768436 -0.14708072 -0.038519744 -0.007739127 0.15460792 0.054536693 0.1409762 0.05315076 0.036985915 -0.041569825 -0.08084354 -0.116666555 -0.029353775 0.06748451 -0.029139115 0.041395128 0.00968113 0.024171524 -0.20215209 -0.105834946 -0.17319179 -0.20027694 0.045350533 -0.11846109 -0.053997178 -0.045711044 0.23678388 0.25359315 -0.06851422 -0.05577511 0.0404832 0.014537989 0.03182358 -0.15797095 -0.096172966 -0.12039614 -0.0410213 -0.0636713 0.2521065 -0.11618182 0.020703007 0.0009478178 -0.07340643 -0.24916802 -0.008438229 0.002199023 -0.11375921 -0.03520311 -0.006379718 0.13972172 -0.07170154 -0.095975436 -0.014047359 -0.011599185 0.07840304 -0.03193429 -0.08915251 0.0036426215 0.113417245 -0.03447086 0.11614752 0.055013996 -0.03529248 -0.04731793 -0.030904572 0.0029636405 0.027857061 -0.16196245 -0.0066307625 0.18163818
28 0.021728283 -0.19852836 0.068024375 -0.03585994 -0.15577266 0.029240543 0.19029805 0.06058444 0.13745351 -0.0024674959 0.06046769 -0.08555224 -0.059346646 0.01321092 0.108825035 -0.06527179 -0.005872637 -0.030775 -0.08406697 0.057988517 -0.024369305 -0.06200211 0.064001314 0.28001395 0.09015707 0.022042997 0.21392551 0.02972512 -0.0790451 -0.08059516 0.11164163 0.0045762258 0.07354645 -0.008533646 0.01835191 -0.06767746 -0.2097442 0.07227489 0.003698583 -0.06022005 0.032183696 -0.15934815 0.0069785756 0.17625912 -0.15088622 0.015873346 -0.07817965 -0.13858171 -0.004875915 0.062201057 -0.07122345 -0.03498551 -0.08857709 0.05090195 0.037406716 -0.08716094 0.19087791 0.29287234 0.15004796 -0.10618547 -0.014362484 -0.017251119 0.12788104 0.050899845 0.1350934 0.06557228 0.0341693 -0.042454574 -0.11665042 -0.12249278 -0.0032655573 0.043756463 -0.013989276 0.03718456 0.005906035 0.032426443 -0.1897386 -0.12170095 -0.2107874 -0.20334072 0.005922035 -0.1048981 -0.027333379 -0.019683683 0.26033357 0.2851412 -0.08566647 -0.050536327 0.0453577 0.0051547317 0.05498369 -0.1567056 -0.10650857 -0.12781549 -0.05418709 -0.01823351 0.26760465 -0.1017001 0.022922084 -0.020678103 -0.06115336 -0.25079033 0.043241855 -0.00029784697 -0.12058333 -0.057867076 -0.023577338 0.16666402 -0.083470486 -0.092376344 -0.028986275 0.0021630295 0.08411994 -0.07747624 -0.10108954 -0.020556536 0.10299809 -0.05642346 0.13835849 0.061079763 -0.059859913 -0.054962028 -0.031285897 0.00180267 0.06458804 -0.20592146 0.004971863 0.20961976
9 0.012844637 -0.18031596 0.0614175 -0.029031662 -0.16561003 0.014027529 0.19723414 0.053256065 0.12532009 0.0011802632 0.062137783 -0.105829544 -0.07395638 0.012317111 0.10100654 -0.061882056 -0.003721434 -0.043980055 -0.06732154 0.058692638 -0.027880687 -0.05785835 0.06607574 0.25553957 0.08144768 0.024795067 0.19869879 0.044591255 -0.07321369 -0.078281954 0.09753278 0.015805805 0.06468557 0.0018902244 0.010921836 -0.037943978 -0.19231276 0.071393155 -0.0035989934 -0.044293657 0.007918021 -0.16025127 -0.0085377 0.1570562 -0.14606002 0.0054839584 -0.072832696 -0.14009273 -0.023886519 0.05738337 -0.069305226 -0.028148856 -0.078782655 0.053396724 0.05196318 -0.078691795 0.17125206 0.27568525 0.12633887 -0.12146931 -0.02546458 -0.015714316 0.12996703 0.04885248 0.12682521 0.058345422 0.033098593 -0.040881068 -0.093476474 -0.1160961 -0.014078354 0.056107022 -0.020611042 0.038397525 0.0077510006 0.02741421 -0.18569455 -0.10934718 -0.17709512 -0.18508837 0.017491018 -0.100732684 -0.03535027 -0.026991501 0.2395769 0.25345713 -0.07101424 -0.050394114 0.0373643 0.010397254 0.043723185 -0.1508138 -0.09183909 -0.1193704 -0.045071445 -0.033519447 0.24404219 -0.09518924 0.014212713 -0.0066486816 -0.062368043 -0.23501666 0.016530346 -0.0057407524 -0.10731346 -0.041127153 -0.009888455 0.14565761 -0.07924506 -0.09532473 -0.022738995 -0.007694666 0.07673982 -0.057398953 -0.08536865 -0.006766855 0.102142446 -0.040601514 0.112617865 0.053129714 -0.048595946 -0.050782263 -0.035862327 -0.0024471655 0.040527 -0.16528395 0.00034059756 0.18038529
30 0.030148135 -0.1883569 0.061428722 -0.04249309 -0.1529951 0.035594504 0.18311846 0.05976356 0.14478089 0.004165272 0.06251931 -0.08569976 -0.054475486 0.016118716 0.10797391 -0.056256637 -0.0057499744 -0.028695656 -0.075611405 0.05599029 -0.02649988 -0.058357537 0.06457075 0.27657852 0.08725219 0.02252265 0.21838814 0.03653035 -0.07592127 -0.09048153 0.11504953 0.0060346317 0.075058825 -0.010370381 0.022162635 -0.06117249 -0.22760579 0.08655554 0.003814209 -0.052973263 0.039334442 -0.16357894 0.0085788835 0.18497829 -0.15363207 0.025735691 -0.077090755 -0.14338748 -0.011179864 0.0658858 -0.0694556 -0.039834596 -0.09160339 0.044831738 0.03028974 -0.088013925 0.19172062 0.2899641 0.15487786 -0.0979741 -0.013163541 -0.0121640675 0.11877781 0.05991371 0.13944232 0.0736647 0.021872148 -0.041177463 -0.1221852 -0.13026427 -0.0016212952 0.049437817 -0.011960257 0.04355377 0.0026849357 0.036196344 -0.19160607 -0.12009297 -0.21597283 -0.20566738 -0.004695786 -0.10890414 -0.016301773 -0.024281053 0.2690957 0.2849781 -0.083323315 -0.046513222 0.03850531 0.009473574 0.06118743 -0.1599876 -0.11453256 -0.123733826 -0.052264005 -0.001913883 0.2733153 -0.09347927 0.016844533 -0.024797134 -0.059672616 -0.252133 0.044860363 -4.0947252e-05 -0.11882098 -0.05273571 -0.030240264 0.17514978 -0.09177641 -0.0942028 -0.03647417 -0.004163184 0.09513971 -0.083609775 -0.11051779 -0.023771409 0.106578775 -0.04701161 0.1366891 0.06339654 -0.06265382 -0.05382023 -0.030646758 -0.0075862366 0.07155291 -0.20964807 -0.00051369384 0.21712929
6 0.0148723405 -0.17339095 0.0559735 0.008653583 -0.20001696 -0.04558595 0.24123685 0.04167462 0.08599102 -0.0045086993 0.10439892 -0.16708264 -0.12022515 0.016660938 0.106319904 -0.06949468 0.025238154 -0.073530406 -0.043046355 0.06937477 -0.049433704 -0.064933516 0.08433334 0.22685416 0.06508998 0.031854566 0.18265705 0.08479793 -0.085587 -0.07548036 0.04942639 0.059569314 0.07093756 0.0458355 -0.012626916 0.018843742 -0.19891354 0.072296165 0.0033319255 -0.009904289 -0.057463706 -0.17272426 -0.057256714 0.1267205 -0.15331744 -0.030530311 -0.053819515 -0.15562488 -0.08909596 0.06571993 -0.07049179 -0.015780488 -0.081671044 0.07995779 0.072981454 -0.08439584 0.14989917 0.263525 0.07136724 -0.18387584 -0.051512223 -0.01494858 0.17062551 0.060834482 0.15167744 0.039880455 0.028895669 -0.030664217 -0.059502892 -0.11137614 -0.06343033 0.07931437 -0.025142184 0.06322357 0.017208261 0.001038248 -0.2252482 -0.10351481 -0.1494306 -0.2058645 0.0625641 -0.128238 -0.08491005 -0.07724726 0.21210341 0.21424255 -0.065099545 -0.059499193 0.03465215 0.018005956 0.005630011 -0.1719562 -0.06906715 -0.11398519 -0.034298252 -0.09354774 0.24840173 -0.14559011 0.009044316 0.00039436275 -0.088908635 -0.2554894 -0.044127382 0.0027932865 -0.10747167 -0.0028021622 0.019426363 0.11368548 -0.059819702 -0.09376258 0.0054425416 -0.042443614 0.08001518 -0.012972874 -0.07314379 0.0050357734 0.13093905 0.0046134763 0.09125691 0.025946954 -0.005025666 -0.048599612 -0.020836039 -0.007737005 -0.002611334 -0.13426293 -0.009133165 0.18954265
7 0.01389249 -0.17403005 0.057602808 0.018462816 -0.21905261 -0.06827273 0.2626174 0.039979238 0.075043075 -0.003194302 0.12211712 -0.19512473 -0.13723777 0.01230237 0.120351255 -0.07442814 0.032361463 -0.088887215 -0.038675543 0.07414219 -0.053282723 -0.06801514 0.09404157 0.22931929 0.058600232 0.03833398 0.17992802 0.09799632 -0.09097556 -0.0770697 0.041278366 0.073294155 0.07515085 0.059448797 -0.016999904 0.037820075 -0.20083104 0.071657166 0.003329747 0.0027199292 -0.08458285 -0.17906709 -0.07043958 0.12009481 -0.1653692 -0.044472422 -0.048847526 -0.16799393 -0.1118608 0.0674469 -0.079619564 -0.016361458 -0.08637445 0.09871771 0.08750561 -0.0889131 0.1526617 0.27192432 0.05960012 -0.21393318 -0.067342125 -0.019856801 0.1885214 0.06996085 0.16772372 0.035970066 0.02799562 -0.02907283 -0.055062734 -0.1186041 -0.0808559 0.08745933 -0.035077002 0.07350287 0.014785718 -0.005520417 -0.24142298 -0.10483994 -0.1321233 -0.21848643 0.07532094 -0.13714357 -0.10115427 -0.089666836 0.20944118 0.20864075 -0.06683355 -0.07016529 0.040895354 0.020916514 -0.008283794 -0.18429638 -0.06407618 -0.12590988 -0.024550127 -0.12517864 0.2628819 -0.162767 0.010156923 0.009210109 -0.10387644 -0.27019164 -0.07554163 0.0005944773 -0.10929398 0.0064653177 0.03663073 0.10317087 -0.05911655 -0.10077585 0.010978936 -0.04992042 0.08792043 0.0005635833 -0.075654134 0.013433776 0.14350052 0.014865219 0.08931406 0.022965482 0.009458585 -0.042074777 -0.017460024 -0.0070056133 -0.015511088 -0.13042876 -0.0109437555 0.19350345
26 0.02700808 -0.1874806 0.067051895 -0.03591295 -0.1567171 0.031207683 0.18739547 0.059290018 0.1374866 -0.003782274 0.05856722 -0.080466256 -0.06033846 0.0082252305 0.10688186 -0.061106738 -0.006491111 -0.033451136 -0.08016677 0.05330633 -0.024296824 -0.065869585 0.05960696 0.27338067 0.08810795 0.018605322 0.21584795 0.031816956 -0.07413667 -0.082775086 0.10789905 0.01264925 0.07501723 -0.0065214103 0.013058099 -0.06424163 -0.21213973 0.074292324 0.011950273 -0.049563352 0.03381434 -0.15491086 0.015626963 0.177877 -0.14491239 0.016126623 -0.06839111 -0.14259137 -0.010231209 0.05936963 -0.066658534 -0.035495378 -0.085968524 0.044532433 0.032351777 -0.086263105 0.1918335 0.28945506 0.14905758 -0.103251025 -0.01752211 -0.019981373 0.12690094 0.055009205 0.14011006 0.063503794 0.027926706 -0.046329748 -0.11135696 -0.12427119 -0.0023535178 0.039314594 -0.015621232 0.04481328 0.0076028267 0.032712117 -0.18390918 -0.12003533 -0.20255212 -0.1982237 -0.0030772502 -0.10470356 -0.026364932 -0.02140751 0.2614659 0.28019324 -0.08789858 -0.04655561 0.042610575 0.0056615267 0.05009148 -0.16136889 -0.100147046 -0.12144315 -0.058343694 -0.011491768 0.26417628 -0.09528024 0.021334216 -0.022866882 -0.06035191 -0.24952069 0.042258557 -0.0006598499 -0.12799145 -0.057993896 -0.01950404 0.16868283 -0.08179328 -0.09265393 -0.034081586 -0.0050001787 0.08119491 -0.07734493 -0.098235376 -0.026429784 0.10856618 -0.05377133 0.13817441 0.05185272 -0.059989538 -0.05545532 -0.03535097 -0.006930558 0.06263806 -0.20377466 0.00843583 0.21529873
20 0.019614829 -0.17796624 0.060982436 -0.02026876 -0.17594942 -0.0016053043 0.20645702 0.050097127 0.10694518 5.7063593e-05 0.07536363 -0.11875994 -0.08235921 0.013304695 0.105860166 -0.06238647 0.004595553 -0.05077509 -0.0634994 0.062240187 -0.03476833 -0.06585128 0.07247917 0.24753633 0.07779389 0.028716331 0.19168207 0.056852054 -0.07660463 -0.076929234 0.0817808 0.025971038 0.070436 0.015411263 0.0065213046 -0.022878304 -0.197184 0.06613794 0.0048482623 -0.037420914 -0.015337183 -0.16389307 -0.020660436 0.15114418 -0.15072593 -0.008870166 -0.06374939 -0.14777894 -0.045593534 0.061995514 -0.07427434 -0.028589856 -0.077903755 0.067406595 0.054143526 -0.079784915 0.16511776 0.2736263 0.10374695 -0.14420785 -0.033426322 -0.017210998 0.14068621 0.05238579 0.13898364 0.0540723 0.0278643 -0.036274202 -0.08615367 -0.11194457 -0.032462385 0.062733166 -0.023568854 0.04857483 0.014381542 0.016734598 -0.19641788 -0.103974596 -0.17002337 -0.19981295 0.03335649 -0.11274203 -0.047624238 -0.041849516 0.23397498 0.24537398 -0.06995839 -0.05097742 0.039347194 0.0086696595 0.027526991 -0.15827043 -0.085494526 -0.121571936 -0.03814155 -0.05194086 0.25133237 -0.11424554 0.016457213 -0.008792924 -0.068695605 -0.24245343 -0.0009521099 7.1260394e-05 -0.11355098 -0.034542426 -0.00031389037 0.13149281 -0.072444506 -0.09579488 -0.014116765 -0.013742924 0.08329134 -0.04317853 -0.08747994 -0.0058833244 0.1146318 -0.03079872 0.113872714 0.04465469 -0.03317992 -0.045212068 -0.02504645 -0.0015446574 0.029345293 -0.166295 -0.0003774875 0.18663238
29 0.024571003 -0.19596086 0.06457039 -0.03729376 -0.16822468 0.023984307 0.20423552 0.053532973 0.13729356 -0.0010042614 0.0718874 -0.102188155 -0.07194588 0.016404662 0.11013665 -0.06403376 -0.0025509584 -0.040648494 -0.080959074 0.05821845 -0.031949297 -0.06394716 0.070879444 0.27639094 0.08635379 0.025449991 0.2179486 0.04638794 -0.0768504 -0.08088782 0.1123885 0.015734384 0.07662373 -0.002243303 0.01164994 -0.056222107 -0.21740825 0.08031772 0.0043332214 -0.057739004 0.018033843 -0.16851437 -0.0015380029 0.17722148 -0.16259123 0.009387488 -0.07285213 -0.1457167 -0.014945078 0.062462173 -0.07340088 -0.035866402 -0.087721825 0.05450964 0.047850322 -0.09006799 0.1944446 0.29878286 0.14012103 -0.124125384 -0.022883093 -0.012636855 0.13830915 0.056318033 0.1425298 0.06752236 0.03003241 -0.044560917 -0.11503991 -0.12828173 -0.008005129 0.052024286 -0.01971471 0.041618597 0.01235028 0.031404905 -0.1964923 -0.12091975 -0.20287144 -0.21300344 0.010248606 -0.11496435 -0.031682067 -0.030907143 0.26678735 0.2859836 -0.08639492 -0.05667118 0.040902607 0.010116063 0.04594479 -0.16016883 -0.10936239 -0.13358323 -0.05164087 -0.026727702 0.27567583 -0.10941412 0.020981262 -0.017232088 -0.06730028 -0.26450506 0.028554855 0.00015986986 -0.12930499 -0.05138864 -0.019473674 0.1641721 -0.088639125 -0.10204414 -0.03277739 -0.007060982 0.0926724 -0.07067276 -0.09846855 -0.0128244 0.10680485 -0.052854385 0.13576573 0.060038317 -0.057627127 -0.056205943 -0.03276516 0.0002801843 0.050545447 -0.20297427 0.0047574304 0.21338965
5 0.0131681375 -0.16432394 0.052828066 0.00019162243 -0.18057592 -0.03211014 0.21480392 0.036780853 0.081471436 -0.0098091215 0.090252995 -0.13944982 -0.09431774 0.01536711 0.10440309 -0.06272083 0.010580044 -0.05942769 -0.0507685 0.05888859 -0.039179213 -0.060551297 0.072031334 0.21233739 0.06134317 0.022680268 0.17343806 0.0683274 -0.074792504 -0.073707104 0.06054542 0.040414877 0.07112064 0.03121864 -0.0023012678 -0.00043352833 -0.17992224 0.062409837 0.006561687 -0.020107236 -0.04094234 -0.15286362 -0.036767136 0.12855561 -0.14627002 -0.02594474 -0.04995549 -0.14474408 -0.06538223 0.058097877 -0.06923572 -0.017812056 -0.07292422 0.07519356 0.06343365 -0.08273718 0.14895838 0.25045067 0.07593846 -0.15439461 -0.04872818 -0.017378977 0.14986059 0.056629132 0.1372912 0.041265983 0.02382704 -0.037939437 -0.07138604 -0.109332934 -0.04780072 0.0632731 -0.021581156 0.04958948 0.009672064 0.0050986623 -0.2028721 -0.09815756 -0.13751578 -0.19128503 0.044262577 -0.113702916 -0.06796748 -0.056987416 0.20398434 0.2103931 -0.06751229 -0.05637809 0.035852063 0.01342635 0.016612286 -0.15507203 -0.06992575 -0.11556731 -0.031161264 -0.073072314 0.23686549 -0.11978122 0.009841399 -0.00276059 -0.073916994 -0.22865568 -0.032640938 -0.00035501123 -0.10482238 -0.01728284 0.01160968 0.11430528 -0.06445609 -0.088335335 -0.0026163599 -0.027290955 0.07560592 -0.024486858 -0.072141215 0.000994045 0.118197165 -0.011085428 0.09338083 0.03431751 -0.011611808 -0.042117324 -0.020177417 0.00041110435 0.006638856 -0.13458718 -0.0037379568 0.17512134
11 0.011788937 -0.17482711 0.0592536 0.0027782142 -0.19880512 -0.04409377 0.24743427 0.042034484 0.08187441 -0.0071064727 0.104225606 -0.16043577 -0.12022623 0.016143491 0.11119698 -0.072919175 0.0214147 -0.07744556 -0.04580036 0.06294882 -0.046091758 -0.06532021 0.08064966 0.21886468 0.06675309 0.02989416 0.17822509 0.07927321 -0.086991064 -0.07253149 0.0541604 0.05432666 0.06932079 0.042517334 -0.007960178 0.015270809 -0.18787561 0.066827185 0.0067194705 -0.008793805 -0.057793017 -0.16372345 -0.050015736 0.12025783 -0.1568536 -0.037502706 -0.053390894 -0.148459 -0.081232175 0.059885394 -0.073132575 -0.018459149 -0.07833475 0.08529796 0.07820782 -0.08216691 0.1514001 0.2625802 0.06934873 -0.18527642 -0.05525564 -0.017197168 0.17017998 0.05937318 0.14422698 0.034911916 0.02751252 -0.035183072 -0.062076554 -0.10863024 -0.06427251 0.07609375 -0.026416998 0.054958545 0.017195746 0.006153024 -0.21431789 -0.095725104 -0.13839194 -0.2025428 0.05743516 -0.12429354 -0.08425578 -0.074461415 0.20483261 0.21173728 -0.06492174 -0.05973218 0.038804673 0.016224701 0.0022635695 -0.16660526 -0.06765044 -0.11688157 -0.031508327 -0.10019081 0.24473773 -0.1373552 0.009095056 0.0036397702 -0.083589144 -0.24945311 -0.053444352 0.0043527517 -0.105605856 -0.0037894926 0.024435395 0.10603654 -0.062298704 -0.09790629 -0.00081946165 -0.037943814 0.075939246 -0.014991367 -0.06983162 0.01208079 0.12305227 -0.00509979 0.08975537 0.025520228 -0.006138954 -0.04452232 -0.01959801 -0.0051838146 -0.00761846 -0.12682526 -0.0087870415 0.17757064
25 0.02990851 -0.1909016 0.059552938 -0.039343625 -0.15202363 0.03279393 0.17686583 0.062221184 0.14018412 -0.0005562521 0.06274024 -0.07179913 -0.053415876 0.010401801 0.1070712 -0.057807513 -0.003295729 -0.024069697 -0.07718491 0.04941295 -0.021402918 -0.06702496 0.05958305 0.2736355 0.092980206 0.021722047 0.2179447 0.02569061 -0.07913525 -0.084894516 0.113714926 0.011611012 0.07595554 -0.00692101 0.0119384965 -0.07206117 -0.21351019 0.07609655 0.013275516 -0.05418473 0.041406427 -0.15085122 0.019074995 0.1760973 -0.14723635 0.021066004 -0.066433415 -0.13636343 -0.0001947448 0.054694187 -0.070684455 -0.036221057 -0.08912391 0.045619838 0.025561823 -0.08316166 0.19165125 0.29116043 0.1527228 -0.100868486 -0.015084845 -0.017378682 0.12519805 0.05429435 0.13683447 0.06647663 0.030469975 -0.04629049 -0.11658839 -0.12689042 0.0042185527 0.037513483 -0.018124651 0.038753286 0.004198369 0.03553396 -0.17602062 -0.12289088 -0.20936437 -0.20324208 -0.010965933 -0.10405863 -0.022313071 -0.016628535 0.26351744 0.27479777 -0.09116978 -0.05418855 0.04244278 0.005124946 0.05242534 -0.15390813 -0.09956209 -0.12471124 -0.05873711 -0.0046367384 0.26319477 -0.09643129 0.016681725 -0.022245754 -0.059564102 -0.24955073 0.04650301 0.0013606062 -0.12957993 -0.057794098 -0.024366023 0.17167597 -0.08648625 -0.089089684 -0.036505412 -0.0027053407 0.080655694 -0.08258592 -0.0993954 -0.03004451 0.10227314 -0.057056945 0.14222407 0.052062523 -0.059730615 -0.054254618 -0.030355832 0.0012546538 0.06703293 -0.20951404 0.0027925954 0.21590787
31 0.020118246 -0.1896319 0.06295589 -0.041518208 -0.16075104 0.024143476 0.19586083 0.051283814 0.13577086 0.0036577375 0.06427479 -0.09655419 -0.067693464 0.012332633 0.101379365 -0.0581958 -0.0070854654 -0.039844565 -0.07581718 0.058424838 -0.026623426 -0.06600526 0.07386274 0.27640283 0.084635235 0.027103221 0.21328653 0.045114942 -0.07976863 -0.08178631 0.11323034 0.007632891 0.07319612 -0.0066283443 0.016032036 -0.049972057 -0.20956035 0.0782549 -0.0021191565 -0.057512306 0.024051372 -0.16767727 0.0015595544 0.17038465 -0.15679297 0.012388796 -0.07722085 -0.14141767 -0.02079521 0.06014533 -0.071437165 -0.034305785 -0.08750072 0.048946112 0.04640953 -0.08309573 0.18652627 0.2876027 0.13814993 -0.1128887 -0.01810726 -0.011846419 0.12616993 0.053027008 0.13006411 0.065439224 0.03262105 -0.04231728 -0.1079096 -0.120461196 -0.005592872 0.051762737 -0.01383542 0.04068227 0.009118266 0.035338655 -0.18983546 -0.117763944 -0.19448681 -0.19479774 0.0067581316 -0.10507314 -0.022923326 -0.027717823 0.26149315 0.27193287 -0.0830791 -0.048024878 0.040248353 0.011323521 0.04675633 -0.15050676 -0.1022047 -0.119455315 -0.045105282 -0.017645 0.25445223 -0.09666288 0.018364124 -0.012999724 -0.05713382 -0.2458411 0.03372907 -0.00064262614 -0.11885345 -0.051092423 -0.022278327 0.16166168 -0.085823685 -0.09540135 -0.029665368 -0.0057407916 0.08472085 -0.07138814 -0.09924152 -0.010353531 0.10056102 -0.050217837 0.12959066 0.061642054 -0.05344879 -0.052154694 -0.03539738 -0.003929476 0.053481404 -0.18935762 0.0045672674 0.19239192
13 0.016825154 -0.18437438 0.061066844 -0.022844793 -0.17859627 -0.0012046652 0.21539317 0.049195316 0.11542665 -0.00020560253 0.07296241 -0.11532699 -0.08410831 0.015581467 0.10694252 -0.068642475 0.00019466456 -0.051991224 -0.06816442 0.062180493 -0.03154969 -0.06726862 0.07676348 0.25512886 0.07834604 0.024999991 0.19831948 0.053652108 -0.07611262 -0.07913461 0.09005373 0.025021484 0.07283197 0.021154946 0.0045162598 -0.02915749 -0.1908444 0.06692257 -0.00097148085 -0.038326386 -0.0052190362 -0.15948889 -0.020106262 0.15201823 -0.15012917 -0.007720231 -0.0680783 -0.1457376 -0.04017994 0.05748894 -0.07384663 -0.024520392 -0.07522057 0.0677381 0.055247426 -0.084747076 0.170491 0.27327207 0.11147697 -0.14036338 -0.03235966 -0.013838186 0.14501071 0.05044874 0.13632144 0.054615658 0.034183655 -0.042730898 -0.091327734 -0.11824483 -0.021971744 0.056819893 -0.025785912 0.039292186 0.01105038 0.024483044 -0.19904284 -0.10966608 -0.17244974 -0.19929303 0.03233233 -0.113519095 -0.049405485 -0.039367836 0.23905438 0.24847507 -0.0782429 -0.056334637 0.036691677 0.008045763 0.03853051 -0.15712254 -0.0954944 -0.12033322 -0.041161146 -0.05224251 0.25260168 -0.11445697 0.015078158 -0.0043791034 -0.07097049 -0.2442474 -5.704125e-06 0.0013817934 -0.11096617 -0.0395653 -0.004116395 0.1368402 -0.075348444 -0.096425615 -0.01889172 -0.009720227 0.08145632 -0.040850036 -0.08481948 -0.002410823 0.11100723 -0.03579117 0.11689618 0.048485663 -0.041302666 -0.05059885 -0.026242238 0.0053119157 0.032543395 -0.16793227 0.0023793343 0.18908595
22 0.0144902095 -0.17784786 0.060106598 -0.01475282 -0.1769283 -0.0062921722 0.21273689 0.045344155 0.10390735 -0.0068728845 0.07653883 -0.124261476 -0.088966936 0.011551926 0.099402554 -0.0626142 0.009575979 -0.056639615 -0.061315645 0.063400164 -0.034120638 -0.06708833 0.075430825 0.2437013 0.069146745 0.034069374 0.18831371 0.059051067 -0.07982098 -0.07638688 0.07417812 0.027935876 0.070806526 0.02267233 0.0010829053 -0.017718796 -0.18880208 0.06523492 0.0009708315 -0.033630233 -0.017034687 -0.16201396 -0.026935013 0.13941064 -0.15436564 -0.016529202 -0.06543707 -0.14119297 -0.04945066 0.062061828 -0.07532224 -0.021510515 -0.07572808 0.072184466 0.063526176 -0.08204236 0.16340767 0.26886088 0.10152445 -0.14626296 -0.032408826 -0.010863416 0.14997277 0.051914293 0.1334216 0.05079741 0.029271076 -0.0390005 -0.080416575 -0.11009592 -0.035094824 0.060822744 -0.02649897 0.049658887 0.008927308 0.017889261 -0.20002227 -0.09902987 -0.16156316 -0.19699469 0.035968043 -0.11455942 -0.05459746 -0.042363286 0.23324016 0.2399201 -0.07442087 -0.05167864 0.033499774 0.010137525 0.022775322 -0.15135649 -0.08564068 -0.12110713 -0.039657682 -0.06218712 0.24094076 -0.115666494 0.019660097 -0.0013313283 -0.06944567 -0.23635578 -0.0059636855 -0.0024840236 -0.111040734 -0.033615526 -0.0009610826 0.13302682 -0.07115983 -0.09199356 -0.012867429 -0.017104669 0.075776815 -0.035551157 -0.0831751 -8.542789e-06 0.10660301 -0.026386678 0.11053194 0.04848425 -0.03425143 -0.051312346 -0.027489077 0.00016292732 0.024714423 -0.15979247 -0.0055785757 0.18398091
18 0.009890109 -0.18319894 0.060364168 -0.01733333 -0.19217211 -0.011036967 0.23130517 0.041539256 0.10560629 -0.00651712 0.08774012 -0.1410082 -0.10173937 0.01578493 0.10709544 -0.07185173 0.0049637454 -0.06511349 -0.06285505 0.064577095 -0.03641793 -0.06833063 0.08286968 0.25490904 0.07483416 0.032929417 0.19984376 0.06526691 -0.07839697 -0.07614973 0.07687188 0.032766435 0.07562347 0.033511534 -0.0003896705 -0.01938439 -0.18829694 0.06692628 -0.0050432235 -0.0416984 -0.029801378 -0.16341758 -0.035213225 0.14362781 -0.16262437 -0.022640374 -0.06383434 -0.15439789 -0.05256488 0.061418418 -0.0772059 -0.02636195 -0.073369555 0.08048436 0.074894845 -0.088964455 0.1729089 0.2838055 0.09848103 -0.16483587 -0.040730696 -0.011021939 0.16140081 0.05573366 0.14568764 0.045169033 0.039170057 -0.04028124 -0.08386444 -0.11444971 -0.03487544 0.06858426 -0.028217427 0.044952653 0.01717011 0.015492903 -0.21454933 -0.10383179 -0.1662479 -0.20773028 0.048825197 -0.12138738 -0.05548212 -0.048813935 0.2434126 0.2521104 -0.073418096 -0.06214463 0.04056483 0.011238102 0.024748378 -0.16308127 -0.09303006 -0.13037704 -0.040795848 -0.07094187 0.25570354 -0.12809527 0.01628769 0.0040826784 -0.076945305 -0.25822806 -0.0137866 -0.0021090826 -0.12136189 -0.035628658 0.004662696 0.13447398 -0.0742229 -0.101805165 -0.011181779 -0.015915638 0.08273126 -0.028903618 -0.08745225 0.009043837 0.11414213 -0.034224287 0.11764715 0.04796806 -0.035306804 -0.04893925 -0.027282296 0.00026851776 0.015174003 -0.16264568 -0.0016174717 0.19148427
27 0.025632428 -0.187961 0.06425167 -0.037317086 -0.16076055 0.02336913 0.18786976 0.055067506 0.13270792 -0.0003463378 0.06396812 -0.089125805 -0.06150587 0.01750871 0.103551306 -0.060892466 -0.007523179 -0.033298697 -0.07361648 0.057935394 -0.027784605 -0.060630515 0.069706686 0.2698999 0.08891799 0.02310484 0.21229012 0.039217394 -0.077771075 -0.08590854 0.109177634 0.01095626 0.06866901 -0.0067689307 0.016856246 -0.0549385 -0.2157252 0.083879024 0.003498657 -0.053926036 0.024234962 -0.16173163 0.0064994767 0.1782134 -0.15848957 0.0137154935 -0.07726656 -0.14830078 -0.018435286 0.067337535 -0.066697136 -0.03722865 -0.084070705 0.05391385 0.038486898 -0.085934885 0.18723638 0.2884064 0.14442332 -0.112654716 -0.022966843 -0.018294012 0.13031617 0.057805497 0.13908838 0.065528184 0.0279023 -0.042609878 -0.114551775 -0.12694804 -0.0096800765 0.051948734 -0.010083202 0.042385984 0.005423488 0.031709917 -0.19466466 -0.11565463 -0.2019338 -0.20849204 0.0009431338 -0.10903748 -0.029031709 -0.025039198 0.2594292 0.27641213 -0.08789914 -0.05405541 0.04004259 0.0050676432 0.047348507 -0.16126111 -0.10322783 -0.12168975 -0.05314545 -0.017094009 0.26541096 -0.10230285 0.017870238 -0.021872658 -0.05756065 -0.2525831 0.035569154 0.0012441309 -0.12039841 -0.04810214 -0.018306363 0.1627445 -0.088560924 -0.09424533 -0.0241533 -0.006597463 0.087403536 -0.06951154 -0.10525052 -0.019488733 0.1120905 -0.048580438 0.1353901 0.054969747 -0.05086926 -0.049115524 -0.030297859 -0.0071745655 0.05531005 -0.20017204 0.0035129788 0.2089526
17 0.018271714 -0.17879856 0.05524489 0.006949713 -0.20565066 -0.05564128 0.24874741 0.04444519 0.083154626 -0.007398771 0.10737373 -0.1804777 -0.12647387 0.011279559 0.11620283 -0.06926568 0.024286404 -0.08167245 -0.04778767 0.06723594 -0.05102664 -0.066124186 0.08721291 0.23483072 0.06563198 0.03581246 0.18566231 0.08577713 -0.091157965 -0.07436796 0.0468363 0.061725643 0.07881226 0.04930802 -0.010520122 0.025839502 -0.2025004 0.068405464 0.00874759 -0.004485812 -0.06510452 -0.17728794 -0.056308225 0.12761569 -0.16274619 -0.036906898 -0.057589594 -0.16205636 -0.095562786 0.067542225 -0.07216172 -0.019918732 -0.08362437 0.091640994 0.0731906 -0.091919914 0.15370053 0.27486935 0.070617534 -0.19701391 -0.062201608 -0.015931586 0.18175626 0.06383469 0.16398679 0.040590815 0.031223875 -0.031912904 -0.06363852 -0.11829384 -0.06803393 0.08382783 -0.027151925 0.06930618 0.014404371 0.0059641334 -0.2343462 -0.1048615 -0.14742258 -0.21643789 0.0665916 -0.12829344 -0.09415739 -0.08529274 0.21770819 0.22264722 -0.06902537 -0.068479344 0.037066694 0.021700727 0.006070765 -0.17972407 -0.07350306 -0.12513655 -0.029529918 -0.105955645 0.26230147 -0.15180896 0.010912843 0.0042438614 -0.097799286 -0.26523626 -0.05843378 9.500681e-05 -0.105669014 -0.001467344 0.024813708 0.11961254 -0.05887537 -0.101758085 0.002214685 -0.041994438 0.08744256 -0.010688967 -0.081288606 0.010567929 0.1414924 0.0076280874 0.098110184 0.02788897 -0.00029722322 -0.046420433 -0.025720285 -0.0037089293 0.0009653482 -0.13524945 -0.012603396 0.19681773
15 0.021949317 -0.18913022 0.06295237 -0.035316598 -0.15123993 0.030683955 0.19302697 0.056635953 0.14003703 0.0025337976 0.06394161 -0.08505449 -0.05829548 0.017262084 0.10498981 -0.05807381 -0.011460099 -0.0300739 -0.07610527 0.060149778 -0.028470345 -0.05821644 0.06579846 0.27168626 0.08939412 0.0216989 0.21791394 0.0427684 -0.07870694 -0.08260875 0.11226693 0.010675419 0.06705851 -0.010667081 0.016176045 -0.04840657 -0.22164516 0.083836704 3.928297e-06 -0.05333164 0.029771527 -0.16667329 0.009173059 0.18055943 -0.15124081 0.019277088 -0.07617231 -0.14010906 -0.018004257 0.062191084 -0.07269801 -0.030404493 -0.08483623 0.045743853 0.04336211 -0.08687035 0.1893131 0.28416875 0.14442591 -0.10435442 -0.018140985 -0.013443114 0.12418695 0.0589403 0.1347777 0.066356935 0.02429107 -0.039122187 -0.11380948 -0.12126384 -0.004440968 0.0447674 -0.011277797 0.035621613 0.012406595 0.03414804 -0.1882118 -0.11733453 -0.2010999 -0.20032552 -0.0037524789 -0.10169306 -0.020306675 -0.020909568 0.26100206 0.27358273 -0.081330195 -0.04991362 0.035489906 0.005397509 0.050089136 -0.15016268 -0.09750814 -0.123246655 -0.04639042 -0.009199906 0.26318756 -0.09637371 0.018096779 -0.021791903 -0.05338894 -0.24134868 0.042141017 -0.0028267656 -0.11603827 -0.051334675 -0.022504598 0.15586539 -0.08603175 -0.092341796 -0.026502345 -0.010153667 0.086457975 -0.0710279 -0.09599602 -0.01657755 0.1047806 -0.048390944 0.12712376 0.055885255 -0.055182658 -0.05009251 -0.032558654 -0.007886517 0.05929869 -0.19570144 0.0043367795 0.20327137
10 0.026140701 -0.1870548 0.06406375 -0.035061933 -0.15532127 0.023754342 0.18565348 0.05907761 0.13725713 0.0032825044 0.059331477 -0.09101195 -0.06036606 0.0130855115 0.100291595 -0.060195167 -0.0031921826 -0.0337141 -0.07093744 0.05687421 -0.026835363 -0.055978097 0.065671735 0.26712707 0.082966626 0.026256263 0.21084969 0.04103646 -0.075546965 -0.08299988 0.10940338 0.0090958625 0.072813846 -0.0033759864 0.018184317 -0.050214473 -0.21145958 0.076396644 0.0018403695 -0.0555741 0.024404995 -0.15920877 0.004884632 0.1735124 -0.15037195 0.017332077 -0.07327846 -0.13581043 -0.0168236 0.059860744 -0.06999501 -0.036666818 -0.08190352 0.051342748 0.042022195 -0.08465965 0.18317987 0.27653512 0.13918348 -0.108271815 -0.02327052 -0.018128406 0.12060145 0.058523227 0.1291256 0.06823068 0.025287049 -0.0447665 -0.1099159 -0.12275068 -0.008335042 0.052450657 -0.014690248 0.043219734 0.01106781 0.035609435 -0.18533945 -0.11221588 -0.19997221 -0.19409949 0.005733096 -0.105267 -0.027164996 -0.02075632 0.24788152 0.26838753 -0.08179016 -0.04615268 0.040493064 0.00882659 0.051101014 -0.15405437 -0.106183 -0.11882029 -0.049833342 -0.01242165 0.26101944 -0.094610736 0.017456103 -0.015183973 -0.053359475 -0.2395119 0.033124905 -0.001039897 -0.114097126 -0.049587067 -0.021108821 0.1576073 -0.08390594 -0.09643146 -0.027880661 -0.0051131416 0.085649684 -0.072104774 -0.10024346 -0.01810485 0.1087479 -0.044060104 0.12614943 0.054403555 -0.054997507 -0.050652225 -0.036012437 -0.00054923096 0.059222534 -0.19558725 0.0006026503 0.20324402
16 0.024620203 -0.18599342 0.058269747 -0.03656896 -0.15486418 0.01812525 0.18789552 0.056843888 0.13430119 -0.002792915 0.06633796 -0.09108652 -0.061940815 0.011358079 0.10478855 -0.05926298 -0.0058381376 -0.036223467 -0.07227898 0.053060926 -0.027017716 -0.06356785 0.070458196 0.26776108 0.0884201 0.02064583 0.21334235 0.04218188 -0.08008928 -0.08559566 0.1066946 0.015083838 0.072796635 -0.0015185715 0.011494729 -0.044499304 -0.21106821 0.075314835 0.004398671 -0.045764007 0.023897393 -0.15839255 0.005902407 0.17388664 -0.14901042 0.009321378 -0.067983575 -0.14191459 -0.020921484 0.0648348 -0.0671548 -0.03702632 -0.08686534 0.052548032 0.035905566 -0.081898995 0.18235992 0.28330138 0.13802917 -0.11168077 -0.02149614 -0.012702594 0.12412416 0.05842994 0.13368435 0.06207469 0.028303998 -0.041707437 -0.10672413 -0.12166335 -0.013061026 0.049889203 -0.015784936 0.041582946 0.0063281734 0.0334048 -0.1931846 -0.11437454 -0.19676167 -0.20147146 0.0008427388 -0.110870555 -0.03155001 -0.03216252 0.2512169 0.26648223 -0.083452724 -0.05224356 0.036229163 0.0052897404 0.051641032 -0.16009973 -0.10347878 -0.119947754 -0.049808186 -0.023413057 0.26362005 -0.09951265 0.015485746 -0.016361618 -0.061487325 -0.24871427 0.030611023 -0.00040556607 -0.12078868 -0.049382173 -0.019371528 0.1633638 -0.08497196 -0.093235016 -0.029323366 -0.0061412123 0.089976706 -0.06956632 -0.09710544 -0.015072517 0.10703748 -0.046497837 0.13215524 0.057473615 -0.048702 -0.04977655 -0.030128691 -0.003686417 0.052899737 -0.19116828 0.0045213453 0.20893136
19 0.02066252 -0.18451025 0.0622979 -0.03613217 -0.14902966 0.025918677 0.19162595 0.055514906 0.13407506 0.0027097033 0.0646967 -0.088922225 -0.057055496 0.013758543 0.1053556 -0.059153654 -0.006146591 -0.0345693 -0.077826105 0.060687207 -0.02330745 -0.064917326 0.06733306 0.26888716 0.09250775 0.025024442 0.21251348 0.042035945 -0.08060435 -0.08103455 0.10918895 0.011088417 0.07193048 -0.012464575 0.015166297 -0.055501994 -0.22317027 0.081240974 0.0022615574 -0.055611167 0.027270311 -0.1638695 0.0044375607 0.17658424 -0.15078656 0.018264506 -0.07916823 -0.13818175 -0.01963937 0.065079324 -0.07115417 -0.03673613 -0.08510909 0.04466703 0.041091967 -0.08655614 0.19082177 0.29286304 0.1447502 -0.10610049 -0.016668899 -0.018616218 0.12078 0.061062995 0.13545337 0.06315749 0.024139991 -0.037725884 -0.11037046 -0.12060062 -0.0069802254 0.04755223 -0.008281144 0.03810077 0.0131801525 0.03624919 -0.1945024 -0.11527185 -0.19704439 -0.20292896 -0.0037747521 -0.10336716 -0.028625907 -0.026076384 0.26131228 0.2694131 -0.082090884 -0.044451125 0.03877865 0.00813599 0.044745814 -0.15593888 -0.09626389 -0.12058659 -0.04464496 -0.0111264 0.26228717 -0.097862795 0.019356204 -0.022347905 -0.059731822 -0.2463031 0.041629843 -0.0019504979 -0.11763935 -0.0463999 -0.023761267 0.15590596 -0.08719191 -0.09108597 -0.032113135 -0.007816981 0.08390052 -0.07570794 -0.09925355 -0.014862788 0.10426701 -0.051224083 0.12801084 0.056883764 -0.0512347 -0.048419178 -0.028602837 -0.010293348 0.05761534 -0.19541712 0.0070346817 0.20389257
23 0.023494102 -0.18152513 0.062010217 -0.030658126 -0.15214789 0.026701668 0.18576355 0.058532897 0.13326925 0.0033141512 0.06600211 -0.085174695 -0.055905227 0.015678773 0.10428131 -0.057154357 -0.0051274183 -0.03173477 -0.07270052 0.054479603 -0.025571302 -0.05627432 0.061452202 0.2611358 0.087780595 0.019364426 0.21216974 0.038452405 -0.08037161 -0.08249 0.1078539 0.009813079 0.07057464 -0.007364636 0.0124422675 -0.04839788 -0.21469733 0.07855359 0.005253577 -0.048668392 0.029267246 -0.16298155 0.0011350203 0.17478469 -0.15094608 0.01570095 -0.07317648 -0.13680904 -0.018677758 0.0634727 -0.065831825 -0.03410756 -0.08947991 0.04742029 0.038374506 -0.086209506 0.18010272 0.28168976 0.14135407 -0.10435701 -0.021384247 -0.017586563 0.122951135 0.057200756 0.13229904 0.06594828 0.026716802 -0.040416986 -0.10547339 -0.1212323 -0.008443639 0.05117211 -0.016227387 0.03951058 0.0074873962 0.036264963 -0.18883406 -0.1173787 -0.19986545 -0.19455396 -0.00076394173 -0.10244363 -0.028484426 -0.022411274 0.24911682 0.26813626 -0.07864733 -0.048244406 0.039212495 0.0042485 0.048855025 -0.15517707 -0.100386724 -0.11906621 -0.051767252 -0.012995001 0.2582143 -0.09368527 0.013647877 -0.01573705 -0.05631814 -0.24269359 0.038386874 6.0324914e-05 -0.114429705 -0.04794659 -0.023417378 0.1567677 -0.08356287 -0.093616046 -0.026533809 -0.0029741672 0.0863868 -0.074372396 -0.09499644 -0.016694881 0.10648261 -0.04429817 0.12600875 0.055013735 -0.051440198 -0.050922986 -0.03434941 -0.0069860904 0.05726895 -0.19089636 0.00020748415 0.20408618
21 0.022914339 -0.1796825 0.061371237 -0.034262836 -0.15207589 0.02515135 0.18714383 0.054352432 0.13602771 0.0029157598 0.059034407 -0.092969425 -0.06475439 0.015785469 0.099403515 -0.060682356 -0.010395355 -0.035150457 -0.07153047 0.056119066 -0.027668819 -0.064330846 0.063756146 0.26814812 0.088576645 0.024714135 0.21065283 0.043274533 -0.078128554 -0.07784643 0.10836552 0.009699483 0.066921204 -0.0047938735 0.015522375 -0.04586021 -0.21586978 0.075553045 0.0010838583 -0.047744453 0.024394039 -0.16391037 0.0051358216 0.17496404 -0.1529088 0.011850539 -0.07517478 -0.1395585 -0.018091585 0.06078621 -0.073240325 -0.033814885 -0.08772696 0.05077933 0.041565254 -0.08643493 0.18323788 0.2835396 0.13744374 -0.108775735 -0.022757912 -0.016835729 0.12052742 0.053301886 0.13472992 0.06469403 0.029362956 -0.040360574 -0.11008478 -0.12328486 -0.010180458 0.04844701 -0.012959508 0.040147252 0.012180492 0.02980918 -0.18880962 -0.111901715 -0.19334108 -0.19354132 0.00057667005 -0.10110009 -0.029466104 -0.022489652 0.25567812 0.2686315 -0.08184548 -0.05005084 0.041220438 0.0069058607 0.050258882 -0.15363418 -0.10293415 -0.12306409 -0.04568616 -0.015204136 0.2531425 -0.09669839 0.015774213 -0.019764477 -0.05597728 -0.23917058 0.030356267 0.001151653 -0.116512194 -0.045440044 -0.022359336 0.15630521 -0.08533832 -0.09444084 -0.028007472 -0.00878468 0.081800185 -0.071953624 -0.09602774 -0.01302378 0.10418477 -0.045138825 0.12825061 0.054276053 -0.053837016 -0.048814114 -0.03529451 -0.0014559038 0.052200932 -0.18396118 0.0033835892 0.19814478
12 0.011127547 -0.17858678 0.058867402 -0.020297987 -0.18140513 -0.0076684346 0.21663955 0.047253776 0.10959512 -0.002518733 0.077364884 -0.12891003 -0.090989485 0.013361648 0.10875566 -0.06327957 0.007675411 -0.058976967 -0.06254457 0.06336703 -0.038033105 -0.061851393 0.079110906 0.24987851 0.07538815 0.030644333 0.19662416 0.058552317 -0.076880954 -0.075588204 0.079676785 0.024041472 0.06841124 0.019179419 0.0012879388 -0.028342962 -0.19443819 0.06347949 -0.00032963694 -0.039290577 -0.012362391 -0.15975359 -0.028768301 0.14682655 -0.15638213 -0.011075837 -0.06489257 -0.1479849 -0.046553615 0.060273707 -0.0773259 -0.029022468 -0.08117183 0.06967296 0.0648858 -0.08657396 0.1665046 0.27599353 0.10817058 -0.14507455 -0.031082587 -0.010160524 0.15280059 0.056913294 0.13619685 0.048986405 0.0371665 -0.042831637 -0.08068681 -0.11128512 -0.02908919 0.06612389 -0.027632188 0.045891616 0.014577347 0.023104142 -0.19700322 -0.10472428 -0.16808303 -0.19527914 0.037206613 -0.11140298 -0.052948236 -0.0433388 0.23611733 0.24840163 -0.0730471 -0.057423957 0.039910004 0.008169412 0.031863913 -0.15563592 -0.093120955 -0.1221638 -0.041818377 -0.061564356 0.2474671 -0.11272064 0.017796699 -0.0042408644 -0.07213146 -0.2463502 -0.0076903477 0.001037261 -0.11068279 -0.032034073 -0.0019905102 0.13167737 -0.06971611 -0.09431868 -0.017679919 -0.017835462 0.078453645 -0.043015756 -0.087851286 0.000847818 0.111943215 -0.0332417 0.111863375 0.04913697 -0.035249732 -0.050465513 -0.02855632 0.0047199437 0.029093474 -0.1602987 -0.0062471493 0.1868692
